<?xml version="1.0"?>
<opencv_storage>
<cascade>
  <stageType>BOOST</stageType>
  <featureType>HAAR</featureType>
  <height>20</height>
  <width>20</width>
  <stageParams>
    <boostType>GAB</boostType>
    <minHitRate>9.9500000476837158e-01</minHitRate>
    <maxFalseAlarm>5.0000000000000000e-01</maxFalseAlarm>
    <weightTrimRate>9.4999999999999996e-01</weightTrimRate>
    <maxDepth>1</maxDepth>
    <maxWeakCount>100</maxWeakCount></stageParams>
  <featureParams>
    <maxCatCount>0</maxCatCount>
    <featSize>1</featSize>
    <mode>BASIC</mode></featureParams>
  <stageNum>10</stageNum>
  <stages>
    <!-- stage 0 -->
    <_>
      <maxWeakCount>3</maxWeakCount>
      <stageThreshold>-9.8440164327621460e-01</stageThreshold>
      <weakClassifiers>
        <_>
          <internalNodes>
            0 -1 17 5.7277940213680267e-03</internalNodes>
          <leafValues>
            -8.5815602540969849e-01 7.7083331346511841e-01</leafValues></_>
        <_>
          <internalNodes>
            0 -1 18 2.5993673130869865e-02</internalNodes>
          <leafValues>
            -6.9990116357803345e-01 8.3322745561599731e-01</leafValues></_>
        <_>
          <internalNodes>
            0 -1 13 -2.0768423564732075e-03</internalNodes>
          <leafValues>
            5.7365554571151733e-01 -9.8374366760253906e-01</leafValues></_></weakClassifiers></_>
    <!-- stage 1 -->
    <_>
      <maxWeakCount>4</maxWeakCount>
      <stageThreshold>-6.4059746265411377e-01</stageThreshold>
      <weakClassifiers>
        <_>
          <internalNodes>
            0 -1 22 4.8064701259136200e-03</internalNodes>
          <leafValues>
            -9.4166666269302368e-01 7.1111112833023071e-01</leafValues></_>
        <_>
          <internalNodes>
            0 -1 2 4.1870665550231934e-01</internalNodes>
          <leafValues>
            -6.0573416948318481e-01 9.2526346445083618e-01</leafValues></_>
        <_>
          <internalNodes>
            0 -1 4 -2.7562696486711502e-03</internalNodes>
          <leafValues>
            5.2068465948104858e-01 -9.8526149988174438e-01</leafValues></_>
        <_>
          <internalNodes>
            0 -1 20 3.0265669338405132e-03</internalNodes>
          <leafValues>
            -9.3619352579116821e-01 3.8611871004104614e-01</leafValues></_></weakClassifiers></_>
    <!-- stage 2 -->
    <_>
      <maxWeakCount>2</maxWeakCount>
      <stageThreshold>3.0216665938496590e-02</stageThreshold>
      <weakClassifiers>
        <_>
          <internalNodes>
            0 -1 6 -7.1185052394866943e-02</internalNodes>
          <leafValues>
            9.2771083116531372e-01 -4.0298506617546082e-01</leafValues></_>
        <_>
          <internalNodes>
            0 -1 10 1.9907611422240734e-03</internalNodes>
          <leafValues>
            5.9312349557876587e-01 -8.9749419689178467e-01</leafValues></_></weakClassifiers></_>
    <!-- stage 3 -->
    <_>
      <maxWeakCount>4</maxWeakCount>
      <stageThreshold>-5.7378739118576050e-01</stageThreshold>
      <weakClassifiers>
        <_>
          <internalNodes>
            0 -1 7 -9.6947478596121073e-04</internalNodes>
          <leafValues>
            -8.9873415231704712e-01 6.9249689579010010e-01</leafValues></_>
        <_>
          <internalNodes>
            0 -1 12 5.8095335960388184e-02</internalNodes>
          <leafValues>
            -4.9680876731872559e-01 9.0923190116882324e-01</leafValues></_>
        <_>
          <internalNodes>
            0 -1 1 3.3959415741264820e-03</internalNodes>
          <leafValues>
            -9.2556780576705933e-01 4.5926180481910706e-01</leafValues></_>
        <_>
          <internalNodes>
            0 -1 14 1.7210021615028381e-03</internalNodes>
          <leafValues>
            -9.8220992088317871e-01 3.6249372363090515e-01</leafValues></_></weakClassifiers></_>
    <!-- stage 4 -->
    <_>
      <maxWeakCount>4</maxWeakCount>
      <stageThreshold>-5.0285297632217407e-01</stageThreshold>
      <weakClassifiers>
        <_>
          <internalNodes>
            0 -1 5 1.2609032273758203e-04</internalNodes>
          <leafValues>
            6.8343555927276611e-01 -8.8085108995437622e-01</leafValues></_>
        <_>
          <internalNodes>
            0 -1 2 4.5898163318634033e-01</internalNodes>
          <leafValues>
            -5.3034931421279907e-01 8.5410803556442261e-01</leafValues></_>
        <_>
          <internalNodes>
            0 -1 3 6.3117779791355133e-03</internalNodes>
          <leafValues>
            -9.3971973657608032e-01 4.8756662011146545e-01</leafValues></_>
        <_>
          <internalNodes>
            0 -1 16 2.1886271424591541e-03</internalNodes>
          <leafValues>
            -9.5164924860000610e-01 4.2078074812889099e-01</leafValues></_></weakClassifiers></_>
    <!-- stage 5 -->
    <_>
      <maxWeakCount>1</maxWeakCount>
      <stageThreshold>6.7548078298568726e-01</stageThreshold>
      <weakClassifiers>
        <_>
          <internalNodes>
            0 -1 8 3.9216218283399940e-04</internalNodes>
          <leafValues>
            6.7548078298568726e-01 -9.7247707843780518e-01</leafValues></_></weakClassifiers></_>
    <!-- stage 6 -->
    <_>
      <maxWeakCount>2</maxWeakCount>
      <stageThreshold>-3.4442123770713806e-01</stageThreshold>
      <weakClassifiers>
        <_>
          <internalNodes>
            0 -1 8 -4.1780056199058890e-04</internalNodes>
          <leafValues>
            -8.7341773509979248e-01 8.5286104679107666e-01</leafValues></_>
        <_>
          <internalNodes>
            0 -1 25 -4.5989869977347553e-04</internalNodes>
          <leafValues>
            -9.1408377885818481e-01 5.2899646759033203e-01</leafValues></_></weakClassifiers></_>
    <!-- stage 7 -->
    <_>
      <maxWeakCount>4</maxWeakCount>
      <stageThreshold>-4.8863676190376282e-01</stageThreshold>
      <weakClassifiers>
        <_>
          <internalNodes>
            0 -1 25 3.9256821037270129e-04</internalNodes>
          <leafValues>
            7.4055415391921997e-01 -9.2968750000000000e-01</leafValues></_>
        <_>
          <internalNodes>
            0 -1 15 -8.3852984011173248e-02</internalNodes>
          <leafValues>
            8.4237778186798096e-01 -5.0369220972061157e-01</leafValues></_>
        <_>
          <internalNodes>
            0 -1 9 -7.7028569648973644e-05</internalNodes>
          <leafValues>
            5.3538650274276733e-01 -8.2995623350143433e-01</leafValues></_>
        <_>
          <internalNodes>
            0 -1 26 -4.4558706576935947e-04</internalNodes>
          <leafValues>
            -8.5209804773330688e-01 4.0935638546943665e-01</leafValues></_></weakClassifiers></_>
    <!-- stage 8 -->
    <_>
      <maxWeakCount>3</maxWeakCount>
      <stageThreshold>1.0673444718122482e-01</stageThreshold>
      <weakClassifiers>
        <_>
          <internalNodes>
            0 -1 8 -3.3138657454401255e-04</internalNodes>
          <leafValues>
            -7.8656125068664551e-01 6.8883311748504639e-01</leafValues></_>
        <_>
          <internalNodes>
            0 -1 24 -1.2577036977745593e-04</internalNodes>
          <leafValues>
            -9.1965913772583008e-01 4.4610914587974548e-01</leafValues></_>
        <_>
          <internalNodes>
            0 -1 19 1.1491043493151665e-02</internalNodes>
          <leafValues>
            -8.4589838981628418e-01 4.4718655943870544e-01</leafValues></_></weakClassifiers></_>
    <!-- stage 9 -->
    <_>
      <maxWeakCount>4</maxWeakCount>
      <stageThreshold>-6.0434550046920776e-01</stageThreshold>
      <weakClassifiers>
        <_>
          <internalNodes>
            0 -1 21 -2.4198219762183726e-04</internalNodes>
          <leafValues>
            -9.3415635824203491e-01 7.1499377489089966e-01</leafValues></_>
        <_>
          <internalNodes>
            0 -1 23 1.5484793111681938e-03</internalNodes>
          <leafValues>
            4.4343507289886475e-01 -9.6959990262985229e-01</leafValues></_>
        <_>
          <internalNodes>
            0 -1 0 7.5268493965268135e-03</internalNodes>
          <leafValues>
            -5.7779401540756226e-01 7.5228077173233032e-01</leafValues></_>
        <_>
          <internalNodes>
            0 -1 11 2.6610845816321671e-04</internalNodes>
          <leafValues>
            -9.0379196405410767e-01 4.6416983008384705e-01</leafValues></_></weakClassifiers></_></stages>
  <features>
    <_>
      <rects>
        <_>
          0 6 2 7 -1.</_>
        <_>
          1 6 1 7 2.</_></rects>
      <tilted>0</tilted></_>
    <_>
      <rects>
        <_>
          0 9 12 1 -1.</_>
        <_>
          4 9 4 1 3.</_></rects>
      <tilted>0</tilted></_>
    <_>
      <rects>
        <_>
          1 1 18 18 -1.</_>
        <_>
          1 7 18 6 3.</_></rects>
      <tilted>0</tilted></_>
    <_>
      <rects>
        <_>
          2 4 12 6 -1.</_>
        <_>
          6 4 4 6 3.</_></rects>
      <tilted>0</tilted></_>
    <_>
      <rects>
        <_>
          2 7 8 8 -1.</_>
        <_>
          2 11 8 4 2.</_></rects>
      <tilted>0</tilted></_>
    <_>
      <rects>
        <_>
          2 9 4 1 -1.</_>
        <_>
          4 9 2 1 2.</_></rects>
      <tilted>0</tilted></_>
    <_>
      <rects>
        <_>
          3 14 12 6 -1.</_>
        <_>
          3 17 12 3 2.</_></rects>
      <tilted>0</tilted></_>
    <_>
      <rects>
        <_>
          4 6 4 4 -1.</_>
        <_>
          4 8 4 2 2.</_></rects>
      <tilted>0</tilted></_>
    <_>
      <rects>
        <_>
          4 7 4 3 -1.</_>
        <_>
          6 7 2 3 2.</_></rects>
      <tilted>0</tilted></_>
    <_>
      <rects>
        <_>
          4 8 6 4 -1.</_>
        <_>
          4 8 3 2 2.</_>
        <_>
          7 10 3 2 2.</_></rects>
      <tilted>0</tilted></_>
    <_>
      <rects>
        <_>
          5 6 11 4 -1.</_>
        <_>
          5 8 11 2 2.</_></rects>
      <tilted>0</tilted></_>
    <_>
      <rects>
        <_>
          5 9 6 1 -1.</_>
        <_>
          7 9 2 1 3.</_></rects>
      <tilted>0</tilted></_>
    <_>
      <rects>
        <_>
          6 0 7 6 -1.</_>
        <_>
          6 3 7 3 2.</_></rects>
      <tilted>0</tilted></_>
    <_>
      <rects>
        <_>
          6 9 9 2 -1.</_>
        <_>
          9 9 3 2 3.</_></rects>
      <tilted>0</tilted></_>
    <_>
      <rects>
        <_>
          6 9 12 3 -1.</_>
        <_>
          12 9 6 3 2.</_></rects>
      <tilted>0</tilted></_>
    <_>
      <rects>
        <_>
          6 13 11 6 -1.</_>
        <_>
          6 16 11 3 2.</_></rects>
      <tilted>0</tilted></_>
    <_>
      <rects>
        <_>
          7 11 9 5 -1.</_>
        <_>
          10 11 3 5 3.</_></rects>
      <tilted>0</tilted></_>
    <_>
      <rects>
        <_>
          9 2 2 9 -1.</_>
        <_>
          9 5 2 3 3.</_></rects>
      <tilted>0</tilted></_>
    <_>
      <rects>
        <_>
          10 7 3 12 -1.</_>
        <_>
          10 11 3 4 3.</_></rects>
      <tilted>0</tilted></_>
    <_>
      <rects>
        <_>
          10 8 1 12 -1.</_>
        <_>
          10 12 1 4 3.</_></rects>
      <tilted>0</tilted></_>
    <_>
      <rects>
        <_>
          10 8 2 6 -1.</_>
        <_>
          10 11 2 3 2.</_></rects>
      <tilted>0</tilted></_>
    <_>
      <rects>
        <_>
          10 12 4 2 -1.</_>
        <_>
          12 12 2 2 2.</_></rects>
      <tilted>0</tilted></_>
    <_>
      <rects>
        <_>
          11 5 7 8 -1.</_>
        <_>
          11 9 7 4 2.</_></rects>
      <tilted>0</tilted></_>
    <_>
      <rects>
        <_>
          11 11 4 3 -1.</_>
        <_>
          13 11 2 3 2.</_></rects>
      <tilted>0</tilted></_>
    <_>
      <rects>
        <_>
          11 12 4 1 -1.</_>
        <_>
          13 12 2 1 2.</_></rects>
      <tilted>0</tilted></_>
    <_>
      <rects>
        <_>
          11 12 6 1 -1.</_>
        <_>
          14 12 3 1 2.</_></rects>
      <tilted>0</tilted></_>
    <_>
      <rects>
        <_>
          13 7 3 6 -1.</_>
        <_>
          13 9 3 2 3.</_></rects>
      <tilted>0</tilted></_></features></cascade>
</opencv_storage>
