<?xml version="1.0"?>
<opencv_storage>
<cascade>
  <stageType>BOOST</stageType>
  <featureType>HAAR</featureType>
  <height>40</height>
  <width>80</width>
  <stageParams>
    <boostType>GAB</boostType>
    <minHitRate>9.9900001287460327e-01</minHitRate>
    <maxFalseAlarm>5.0000000000000000e-01</maxFalseAlarm>
    <weightTrimRate>9.4999999999999996e-01</weightTrimRate>
    <maxDepth>1</maxDepth>
    <maxWeakCount>100</maxWeakCount></stageParams>
  <featureParams>
    <maxCatCount>0</maxCatCount>
    <featSize>1</featSize>
    <mode>ALL</mode></featureParams>
  <stageNum>8</stageNum>
  <stages>
    <!-- stage 0 -->
    <_>
      <maxWeakCount>3</maxWeakCount>
      <stageThreshold>-1.2993563413619995e+00</stageThreshold>
      <weakClassifiers>
        <_>
          <internalNodes>
            0 -1 19 -8.3296364173293114e-03</internalNodes>
          <leafValues>
            8.8059699535369873e-01 -9.6008867025375366e-01</leafValues></_>
        <_>
          <internalNodes>
            0 -1 14 2.9463009908795357e-02</internalNodes>
          <leafValues>
            -9.3166464567184448e-01 6.9723474979400635e-01</leafValues></_>
        <_>
          <internalNodes>
            0 -1 6 2.8265660628676414e-02</internalNodes>
          <leafValues>
            -9.1343718767166138e-01 5.9239697456359863e-01</leafValues></_></weakClassifiers></_>
    <!-- stage 1 -->
    <_>
      <maxWeakCount>2</maxWeakCount>
      <stageThreshold>-2.5523120164871216e-01</stageThreshold>
      <weakClassifiers>
        <_>
          <internalNodes>
            0 -1 0 4.3408423662185669e-01</internalNodes>
          <leafValues>
            -8.9339017868041992e-01 9.1836732625961304e-01</leafValues></_>
        <_>
          <internalNodes>
            0 -1 16 -1.4507933519780636e-03</internalNodes>
          <leafValues>
            6.3815897703170776e-01 -9.1494983434677124e-01</leafValues></_></weakClassifiers></_>
    <!-- stage 2 -->
    <_>
      <maxWeakCount>3</maxWeakCount>
      <stageThreshold>-1.5005851984024048e+00</stageThreshold>
      <weakClassifiers>
        <_>
          <internalNodes>
            0 -1 5 4.4600358232855797e-03</internalNodes>
          <leafValues>
            -9.4130927324295044e-01 5.7333332300186157e-01</leafValues></_>
        <_>
          <internalNodes>
            0 -1 17 3.3336795866489410e-02</internalNodes>
          <leafValues>
            -8.8382714986801147e-01 5.3959941864013672e-01</leafValues></_>
        <_>
          <internalNodes>
            0 -1 13 1.6573111061006784e-03</internalNodes>
          <leafValues>
            3.2455113530158997e-01 -1.</leafValues></_></weakClassifiers></_>
    <!-- stage 3 -->
    <_>
      <maxWeakCount>2</maxWeakCount>
      <stageThreshold>-2.9330301284790039e-01</stageThreshold>
      <weakClassifiers>
        <_>
          <internalNodes>
            0 -1 15 2.2367365658283234e-02</internalNodes>
          <leafValues>
            -9.8214286565780640e-01 9.4285714626312256e-01</leafValues></_>
        <_>
          <internalNodes>
            0 -1 8 5.1806044211843982e-05</internalNodes>
          <leafValues>
            6.8883985280990601e-01 -9.8591715097427368e-01</leafValues></_></weakClassifiers></_>
    <!-- stage 4 -->
    <_>
      <maxWeakCount>3</maxWeakCount>
      <stageThreshold>-1.3011406660079956e+00</stageThreshold>
      <weakClassifiers>
        <_>
          <internalNodes>
            0 -1 1 1.2943279743194580e-01</internalNodes>
          <leafValues>
            -9.1774892807006836e-01 8.9285713434219360e-01</leafValues></_>
        <_>
          <internalNodes>
            0 -1 12 4.1370745748281479e-02</internalNodes>
          <leafValues>
            -9.2505365610122681e-01 6.4359712600708008e-01</leafValues></_>
        <_>
          <internalNodes>
            0 -1 9 6.2563995015807450e-06</internalNodes>
          <leafValues>
            5.4166191816329956e-01 -1.</leafValues></_></weakClassifiers></_>
    <!-- stage 5 -->
    <_>
      <maxWeakCount>3</maxWeakCount>
      <stageThreshold>-1.2165621519088745e+00</stageThreshold>
      <weakClassifiers>
        <_>
          <internalNodes>
            0 -1 4 -2.2669374011456966e-03</internalNodes>
          <leafValues>
            6.3855421543121338e-01 -9.8160916566848755e-01</leafValues></_>
        <_>
          <internalNodes>
            0 -1 2 7.6341718435287476e-02</internalNodes>
          <leafValues>
            -8.9255833625793457e-01 8.2866394519805908e-01</leafValues></_>
        <_>
          <internalNodes>
            0 -1 10 7.1726302849128842e-04</internalNodes>
          <leafValues>
            6.5760535001754761e-01 -9.8788064718246460e-01</leafValues></_></weakClassifiers></_>
    <!-- stage 6 -->
    <_>
      <maxWeakCount>2</maxWeakCount>
      <stageThreshold>-3.2816836237907410e-01</stageThreshold>
      <weakClassifiers>
        <_>
          <internalNodes>
            0 -1 7 -2.1204143762588501e-02</internalNodes>
          <leafValues>
            8.4375000000000000e-01 -9.4273126125335693e-01</leafValues></_>
        <_>
          <internalNodes>
            0 -1 18 -5.2364289331308100e-06</internalNodes>
          <leafValues>
            -1. 6.1456292867660522e-01</leafValues></_></weakClassifiers></_>
    <!-- stage 7 -->
    <_>
      <maxWeakCount>2</maxWeakCount>
      <stageThreshold>-3.1151527166366577e-01</stageThreshold>
      <weakClassifiers>
        <_>
          <internalNodes>
            0 -1 3 9.8212826997041702e-03</internalNodes>
          <leafValues>
            -9.8623853921890259e-01 6.8292683362960815e-01</leafValues></_>
        <_>
          <internalNodes>
            0 -1 11 -3.2967783045023680e-04</internalNodes>
          <leafValues>
            -9.9444210529327393e-01 7.5320118665695190e-01</leafValues></_></weakClassifiers></_></stages>
  <features>
    <_>
      <rects>
        <_>
          2 0 76 29 -1.</_>
        <_>
          21 0 38 29 2.</_></rects>
      <tilted>0</tilted></_>
    <_>
      <rects>
        <_>
          2 17 34 22 -1.</_>
        <_>
          19 17 17 22 2.</_></rects>
      <tilted>0</tilted></_>
    <_>
      <rects>
        <_>
          7 29 72 7 -1.</_>
        <_>
          25 29 36 7 2.</_></rects>
      <tilted>0</tilted></_>
    <_>
      <rects>
        <_>
          13 19 28 5 -1.</_>
        <_>
          20 19 14 5 2.</_></rects>
      <tilted>0</tilted></_>
    <_>
      <rects>
        <_>
          15 17 8 9 -1.</_>
        <_>
          17 17 4 9 2.</_></rects>
      <tilted>0</tilted></_>
    <_>
      <rects>
        <_>
          17 15 6 6 -1.</_>
        <_>
          20 15 3 6 2.</_></rects>
      <tilted>0</tilted></_>
    <_>
      <rects>
        <_>
          19 6 20 32 -1.</_>
        <_>
          24 6 10 32 2.</_></rects>
      <tilted>0</tilted></_>
    <_>
      <rects>
        <_>
          21 1 58 3 -1.</_>
        <_>
          50 1 29 3 2.</_></rects>
      <tilted>0</tilted></_>
    <_>
      <rects>
        <_>
          24 16 8 2 -1.</_>
        <_>
          26 18 4 2 2.</_></rects>
      <tilted>1</tilted></_>
    <_>
      <rects>
        <_>
          26 26 6 3 -1.</_>
        <_>
          29 26 3 3 2.</_></rects>
      <tilted>0</tilted></_>
    <_>
      <rects>
        <_>
          31 19 18 12 -1.</_>
        <_>
          31 22 18 6 2.</_></rects>
      <tilted>0</tilted></_>
    <_>
      <rects>
        <_>
          31 19 26 12 -1.</_>
        <_>
          31 22 26 6 2.</_></rects>
      <tilted>0</tilted></_>
    <_>
      <rects>
        <_>
          34 19 39 6 -1.</_>
        <_>
          47 19 13 6 3.</_></rects>
      <tilted>0</tilted></_>
    <_>
      <rects>
        <_>
          35 2 23 12 -1.</_>
        <_>
          35 2 23 6 2.</_></rects>
      <tilted>1</tilted></_>
    <_>
      <rects>
        <_>
          38 17 28 9 -1.</_>
        <_>
          45 17 14 9 2.</_></rects>
      <tilted>0</tilted></_>
    <_>
      <rects>
        <_>
          38 22 33 6 -1.</_>
        <_>
          49 24 11 2 9.</_></rects>
      <tilted>0</tilted></_>
    <_>
      <rects>
        <_>
          40 19 6 2 -1.</_>
        <_>
          42 19 2 2 3.</_></rects>
      <tilted>0</tilted></_>
    <_>
      <rects>
        <_>
          45 12 20 16 -1.</_>
        <_>
          50 12 10 16 2.</_></rects>
      <tilted>0</tilted></_>
    <_>
      <rects>
        <_>
          55 10 2 14 -1.</_>
        <_>
          55 10 1 7 2.</_>
        <_>
          56 17 1 7 2.</_></rects>
      <tilted>0</tilted></_>
    <_>
      <rects>
        <_>
          57 17 6 8 -1.</_>
        <_>
          60 17 3 8 2.</_></rects>
      <tilted>0</tilted></_></features></cascade>
</opencv_storage>
